{"layers":[{"out_depth":117,"out_sx":1,"out_sy":1,"layer_type":"input"},{"out_depth":10,"out_sx":1,"out_sy":1,"layer_type":"fc","num_inputs":117,"l1_decay_mul":0,"l2_decay_mul":1,"filters":[{"sx":1,"sy":1,"depth":117,"w":{"0":-0.08115427710511197,"1":-0.008567022898329913,"2":-0.029826587632854885,"3":-0.04908102068981571,"4":-0.2094697392358709,"5":-0.1530691944046973,"6":-0.16314467201564367,"7":0.06556352310414115,"8":-0.03762250307963408,"9":0.004779813534421411,"10":0.04371129384793533,"11":0.1879275930243515,"12":0.12920671560791247,"13":-0.12178057760025598,"14":-0.011921282809746424,"15":-0.12936624708940292,"16":0.12903885476091476,"17":-0.10503381839934077,"18":-0.02131298471387722,"19":0.03430012264807087,"20":-0.06647820498899848,"21":-0.0023178486673583916,"22":0.04302342712520751,"23":-0.09287590954999879,"24":-0.116057800110359,"25":0.012185730998158397,"26":-0.13565541726699007,"27":-0.047446727561636766,"28":-0.04827470305309563,"29":-0.07714052709939968,"30":0.06211751724589471,"31":-0.0702991578302254,"32":-0.10729009916562689,"33":-0.12116727597504785,"34":0.0920938278848177,"35":-0.11180755385812366,"36":0.09880787054251605,"37":-0.13457418388463566,"38":0.0025509501100541856,"39":0.024157962454270293,"40":0.05747419994671699,"41":0.06886578544629751,"42":-0.007977481886850539,"43":0.002153199120957366,"44":0.2505751367572408,"45":-0.15132227430731512,"46":-0.003917665839812638,"47":0.01513337342990919,"48":0.03930111228491037,"49":0.146882267450027,"50":-0.025947032994582824,"51":0.05754019479482866,"52":-0.12350531517650352,"53":0.043159416766034256,"54":0.07462399301547187,"55":0.17665858560185038,"56":-0.03187978106099992,"57":-0.08107788206687384,"58":0.13536653153187472,"59":0.11219548150412083,"60":0.1699480739501367,"61":-0.15705726381131085,"62":-0.02671657634823692,"63":0.01752160362970386,"64":0.12795577632287594,"65":0.05426013476952078,"66":-0.07429372335197122,"67":-0.000411530395351178,"68":-0.026954569571337236,"69":0.0983189324260969,"70":-0.11299560200976154,"71":0.12126831684729919,"72":-0.018707175688961478,"73":-0.0052133457239521815,"74":0.11611515491100963,"75":-0.05537758213551863,"76":0.01424761539425328,"77":-0.000041913527592118367,"78":-0.06340584566328014,"79":0.06557157090157759,"80":0.019977429898082398,"81":-0.013329080924609342,"82":0.004895433238175718,"83":0.000945864161939753,"84":0.004831060008085677,"85":0.013921294446556416,"86":0.004649401206163367,"87":0.03782711450986561,"88":-0.18238681427077394,"89":-0.08124842585594966,"90":0.013370649856127187,"91":0.02858636428848046,"92":0.07305268550241518,"93":-0.1274918978513352,"94":0.04882907162013191,"95":-0.015347538990742555,"96":0.010828661397089032,"97":0.03495343600717234,"98":-0.04342738241608623,"99":0.009301350587818578,"100":0.15892009576449267,"101":-0.026676601395001012,"102":-0.07116772922549269,"103":-0.11400289883856017,"104":0.15831899852043727,"105":-0.09219772888660142,"106":-0.025486575798240416,"107":-0.04744055174419185,"108":0.034882263300932276,"109":-0.01757086230612272,"110":0.04685125255813185,"111":-0.11625148669869957,"112":-0.1613909782082768,"113":0.016706210709168993,"114":0.19352536769382533,"115":0.11194878434669037,"116":0.014472347387208335}},{"sx":1,"sy":1,"depth":117,"w":{"0":-671.9573370602202,"1":-65.13148029668567,"2":-59.8441291948438,"3":-58.14366386931374,"4":-59.89077341533903,"5":-64.92548938120703,"6":-72.60624637624329,"7":-82.47469083018241,"8":-52.71733606656517,"9":14546770.788429512,"10":-43.52350551814672,"11":14546770.722267104,"12":-52.34552934302563,"13":-61.69247883819446,"14":-72.7192500125551,"15":-41.20453245112198,"16":14546770.675276505,"17":-29.012528311391726,"18":14546770.795672093,"19":-41.15200039485704,"20":-52.39030332889433,"21":-65.35329580028704,"22":-32.335033188722925,"23":14546770.591137003,"24":-14.494177092745163,"25":14546770.684303107,"26":-32.46412621102629,"27":-46.08595653971268,"28":-60.18222788620357,"29":-29.03494130482116,"30":-14.812628690928292,"31":-14546770.615074797,"32":14546770.597282445,"33":14546770.725446962,"34":-43.58048686745413,"35":-58.182824895357264,"36":-32.40488765338655,"37":14546770.794701712,"38":14546770.839827077,"39":-20.682305471265312,"40":-32.600084721976955,"41":-45.93401388289751,"42":-59.89986448231862,"43":-41.15928250350294,"44":14546770.753373662,"45":-29.01606783295104,"46":-32.46772489747125,"47":-41.24340377392008,"48":14546770.676280553,"49":-65.04841511284312,"50":14546770.43612713,"51":-46.05964762486795,"52":-43.62983400176645,"53":-45.97990904420725,"54":-52.38184313673751,"55":-61.695352930928394,"56":-72.59443504746271,"57":-654.5996928061323,"58":-65.0098756863507,"59":-59.9562897159269,"60":-58.26353048659011,"61":-59.93894292257403,"62":-64.97396950487943,"63":-72.89005572152479,"64":-82.23212135602715,"65":-52.372634878144346,"66":14546770.855373045,"67":-43.57374314325506,"68":14546770.75444817,"69":-52.53363593527626,"70":-61.8717717296256,"71":-72.71145340418418,"72":-41.012338089115,"73":14546770.516119825,"74":-29.129826689654784,"75":14546770.653674914,"76":-41.19375277057215,"77":-52.49827864283773,"78":-65.17411455567361,"79":-32.30847887760961,"80":14546770.629750358,"81":-14.55813688277228,"82":14546770.65187963,"83":-32.48448858441575,"84":-46.04763199340983,"85":-59.74789027658446,"86":-29.07454427579221,"87":-14.423936612769074,"88":-14546770.695990447,"89":14546770.681873733,"90":14546770.64785306,"91":-43.65437837825851,"92":-58.277970636857596,"93":-32.58399522282336,"94":14546770.733577842,"95":14546770.500914177,"96":-20.74202856237077,"97":-32.56914664633821,"98":-45.95905217256879,"99":-59.89788253054402,"100":-41.077593320583695,"101":14546770.79873071,"102":-29.015348463440706,"103":-32.416384080863644,"104":-41.19732914883738,"105":14546770.673412716,"106":-65.03352046991628,"107":14546770.542964932,"108":-45.93335752669237,"109":-43.68093433557334,"110":-46.07131661441486,"111":-52.38982992780153,"112":-61.63916220910964,"113":-72.80474260766603,"114":-18.028327346804282,"115":-53.09143280922722,"116":-191.96996911488952}},{"sx":1,"sy":1,"depth":117,"w":{"0":-101.12937301403005,"1":-7.247035609000502,"2":-6.578617783853149,"3":-6.318556178211128,"4":-6.502442558057848,"5":-7.043762618006272,"6":-8.05063749990253,"7":-9.116247692092276,"8":-5.760987304330677,"9":1603018.9283589907,"10":-5.010553653860209,"11":1603018.6980227737,"12":-5.839477973663491,"13":-6.759707262828832,"14":-7.918915596253225,"15":-4.730023165680928,"16":1603018.9840812017,"17":-3.2760501733132394,"18":1603018.859717041,"19":-4.585567093914244,"20":-5.683049401247624,"21":-7.069339942670737,"22":-3.522376544100887,"23":1603018.8797233924,"24":-1.47251395912189,"25":1603018.8841076926,"26":-3.421904039386469,"27":-5.090076266890855,"28":-6.446596448515414,"29":-3.1491970966026726,"30":-1.745465906337012,"31":-1603019.0498399145,"32":1603018.9435562112,"33":1603019.0428270844,"34":-4.802179345025381,"35":-6.28405666279458,"36":-3.6439983122294812,"37":1603019.08777118,"38":1603018.85065413,"39":-2.274209328352872,"40":-3.564205206656788,"41":-5.068743473541487,"42":-6.514372055235807,"43":-4.521876120147529,"44":1603018.935008358,"45":-3.2466289706884233,"46":-3.6637240067223273,"47":-4.373301892372656,"48":1603018.904874399,"49":-7.4648415715716485,"50":1603018.7327119196,"51":-5.210447906096034,"52":-4.903900914811169,"53":-5.0991847520766544,"54":-5.7866089872929924,"55":-6.782139211028013,"56":-8.145111315840712,"57":-121.58985318820567,"58":-7.130206759664649,"59":-6.624919463986063,"60":-6.6001794807743615,"61":-6.4329051084935465,"62":-7.367613904935232,"63":-7.936726976133346,"64":-9.085816344024394,"65":-5.7725725045089025,"66":1603018.9373748552,"67":-4.822257178213988,"68":1603019.0352187962,"69":-5.783832573986664,"70":-6.681608943027525,"71":-7.900894249939563,"72":-4.481856321694655,"73":1603018.9616168593,"74":-3.2861918726729726,"75":1603018.940227123,"76":-4.641455518380457,"77":-5.834251992374047,"78":-7.240779036401152,"79":-3.7210795841603463,"80":1603018.98764238,"81":-1.6759388029683984,"82":1603018.9097238658,"83":-3.5787240772104747,"84":-5.13932042849709,"85":-6.629878951382872,"86":-3.153954527725837,"87":-1.5836467676512205,"88":-1603018.9343048926,"89":1603018.9795968859,"90":1603018.941377036,"91":-4.818310775515159,"92":-6.372046041121151,"93":-3.6319225528114067,"94":1603019.1142944738,"95":1603018.8896801437,"96":-2.262504378390944,"97":-3.6608026041277815,"98":-5.112201487875266,"99":-6.530396702670878,"100":-4.427295135917849,"101":1603019.0488400436,"102":-3.116859252826287,"103":-3.6355506410624807,"104":-4.5852947991332815,"105":1603018.9447668954,"106":-7.2549513551360425,"107":1603018.9777085332,"108":-5.090170744689898,"109":-4.843806769573793,"110":-5.000294602901503,"111":-5.806115139143571,"112":-6.697734706401819,"113":-7.929062576844684,"114":-13.009982440487354,"115":-53.17706570066093,"116":237.24685523531306}},{"sx":1,"sy":1,"depth":117,"w":{"0":0.07530061084365072,"1":-0.023250048720882564,"2":0.058972137570627886,"3":-0.03492167014013413,"4":-0.011409344646683651,"5":0.015153467205446323,"6":0.09440206380298036,"7":0.15918989592446936,"8":-0.22726121090805537,"9":0.11309961103688189,"10":-0.05489956376127534,"11":-0.014991007397364059,"12":0.008570101808163868,"13":-0.05084580226795574,"14":0.05825255231030866,"15":-0.04495427685042284,"16":-0.07992382247051776,"17":-0.03027472721282124,"18":-0.01600956943134457,"19":0.11936622512724543,"20":-0.0026350116179661136,"21":-0.00415692432256609,"22":-0.09663532914946929,"23":0.14340208893425746,"24":-0.16198411360677006,"25":-0.005558156423048288,"26":0.12551181032542058,"27":-0.10745853004523673,"28":-0.018336016401231687,"29":-0.04582318296862671,"30":0.052766583241002335,"31":0.0061303016277267095,"32":0.03864830649626699,"33":0.09183455866620355,"34":-0.017014710845724156,"35":0.0511813635629969,"36":0.00952648227053042,"37":0.033256430779918786,"38":-0.052328508754349586,"39":0.15459939407647758,"40":-0.03327672371068653,"41":-0.16145942736494537,"42":0.025790689315347795,"43":-0.005758843068449919,"44":0.09514833202786753,"45":0.07390972570431285,"46":-0.09064048833930022,"47":-0.03548345121190384,"48":0.02601970191412792,"49":-0.033211252638607795,"50":-0.034210780745605414,"51":0.13071701719608675,"52":-0.17725758778791692,"53":-0.11522893120411158,"54":0.020603602303930296,"55":-0.05944771745565042,"56":0.08701893753580439,"57":0.09325824580301402,"58":0.03649538420410996,"59":0.0012354838839839656,"60":-0.19850669485794856,"61":-0.04826830080575379,"62":0.20585509815961076,"63":-0.16470683861272012,"64":0.05387258285756544,"65":-0.12012445176431126,"66":-0.039360353000918696,"67":0.0034177286365028544,"68":-0.019976979774802364,"69":-0.06710156082550774,"70":-0.038600648984706006,"71":-0.08190748281382156,"72":-0.04025630042938267,"73":0.08196316659347001,"74":-0.05991013103380077,"75":0.010556600320445845,"76":0.015998463301462103,"77":0.1885656460459822,"78":-0.12230676980401399,"79":-0.1106655660312838,"80":-0.00010304531217245821,"81":-0.13807440562916865,"82":-0.013036072841963791,"83":0.022596108102171938,"84":0.0179043857330662,"85":0.014625677172484162,"86":0.1333602994965171,"87":0.03341549553086114,"88":0.03394044912164619,"89":-0.014337443912273339,"90":-0.03716925315566004,"91":-0.16486801985322724,"92":-0.10221712240414173,"93":0.21061241946625475,"94":-0.11946676723376998,"95":0.159712105623479,"96":0.037965923598151576,"97":0.09352189019362678,"98":0.01150664751855696,"99":0.039433259978651616,"100":-0.07251650582186638,"101":0.02886073364711608,"102":-0.13621558685149412,"103":0.09025846267569607,"104":0.0536902241457166,"105":-0.06269596777156798,"106":-0.05379639879280995,"107":0.07358127668014208,"108":0.12108813649153725,"109":0.19015276613518065,"110":0.004935122385376068,"111":0.023424305950907828,"112":0.01785888745220233,"113":0.03888012608910452,"114":0.020591497937230016,"115":-0.022840969994553983,"116":-0.256810506323172}},{"sx":1,"sy":1,"depth":117,"w":{"0":-0.14673992247910433,"1":-0.07159447970690973,"2":0.02409361367684207,"3":-0.17436157399139052,"4":0.10601452850785047,"5":0.05667943973118604,"6":-0.16817240743859033,"7":0.19946086555738407,"8":-0.17256516405802774,"9":0.02188211969485137,"10":-0.03318858071403739,"11":-0.026250092033094276,"12":-0.047112804805464016,"13":0.008001161609403229,"14":0.03594079840166795,"15":-0.1857012906685024,"16":0.06574718642334058,"17":-0.16115779124965024,"18":0.14932175493252894,"19":-0.17449603494998914,"20":0.12085308977312509,"21":-0.029641958320790897,"22":0.03877669185066382,"23":0.16234798304777762,"24":-0.05991095213938098,"25":0.03279470684695779,"26":-0.09659025575646184,"27":0.01927859094744184,"28":0.10879541279324424,"29":-0.07081311960989758,"30":0.03591801850784208,"31":-0.034215595881729816,"32":0.12345561796610371,"33":0.1302718472823399,"34":-0.014194865821526414,"35":0.12009098768304798,"36":-0.03730430809943793,"37":-0.054258554519607725,"38":0.06645732517861576,"39":-0.05821169554539989,"40":0.06118361307825835,"41":0.10812265405248321,"42":0.10451669484421626,"43":-0.06299004847882325,"44":-0.08361774858143882,"45":-0.1974079910483196,"46":-0.1083365520076811,"47":-0.06359784067703807,"48":0.0034814141319176387,"49":-0.16229119935988295,"50":0.05969634042848594,"51":0.004536314879050754,"52":-0.12142974223385308,"53":-0.09781478456904553,"54":-0.10948466641080225,"55":-0.019668432605267686,"56":-0.2030161861569804,"57":0.07763998612771805,"58":0.09454006900649907,"59":0.005270754023759863,"60":0.12214596617078205,"61":-0.13123080010229557,"62":-0.20897467614632143,"63":0.12889363778197532,"64":0.1539170334569833,"65":0.08520767710890041,"66":-0.05112736685394387,"67":0.10441623150837155,"68":-0.0036984354580145828,"69":0.02451573957734377,"70":0.03915752868637478,"71":0.0952201652655673,"72":-0.05989902906130984,"73":0.08322026083268282,"74":0.018325422547551276,"75":-0.028796526246190765,"76":0.07962413055252728,"77":0.04520946064017037,"78":-0.016933858238672574,"79":0.015315198273725348,"80":-0.019712450247575078,"81":0.020841294740073023,"82":-0.002812810941039307,"83":-0.0917151481004682,"84":-0.029049754453174884,"85":-0.03783520823217266,"86":0.03444971879316594,"87":0.17852973658839802,"88":-0.055056250188873786,"89":0.03656994373599712,"90":0.03786336492585307,"91":-0.11279799284846047,"92":-0.002708093619113558,"93":-0.015504191203228367,"94":0.013405154927341865,"95":0.04465507335584602,"96":0.020729389207921906,"97":-0.025303264322822157,"98":0.08833878568653625,"99":-0.15622220715698346,"100":-0.15546121575706193,"101":0.09527320875864179,"102":-0.05891179041897532,"103":0.12330666549113717,"104":0.001092472173712736,"105":0.09258057465880744,"106":0.1249026263291323,"107":-0.06149616318198627,"108":-0.017608403315402837,"109":-0.11368295793987543,"110":-0.08104970089658141,"111":0.0788398798148964,"112":-0.025426837646939378,"113":-0.01741799628101676,"114":-0.0400301610032598,"115":0.03909755149884532,"116":0.10290838662721773}},{"sx":1,"sy":1,"depth":117,"w":{"0":-899.6784605915838,"1":-89.25184009794215,"2":-82.39745336433134,"3":-79.72078225608003,"4":-82.17735358828803,"5":-89.07234359707176,"6":-99.69719722702179,"7":-112.79556353366563,"8":-71.73051669254403,"9":19938334.402432058,"10":-59.79562926715913,"11":19938334.447202884,"12":-71.79967240328877,"13":-84.63087544871877,"14":-99.55081741095053,"15":-56.273701650969464,"16":19938334.400346354,"17":-39.88864405895041,"18":19938334.51770764,"19":-56.47213172013433,"20":-71.83239699674256,"21":-89.12533333718267,"22":-44.53313653166645,"23":19938334.435007446,"24":-19.99178648361006,"25":19938334.423031565,"26":-44.473137969413585,"27":-63.22310570712203,"28":-82.09407641905322,"29":-40.07173359732831,"30":-19.820266698349723,"31":-19938334.439386394,"32":19938334.424971487,"33":19938334.34772745,"34":-59.797778080449625,"35":-79.80001713814077,"36":-44.617975443992556,"37":19938334.60352659,"38":19938334.534556296,"39":-28.154565571855706,"40":-44.476577092147906,"41":-63.16280833531535,"42":-82.14268870250937,"43":-56.4542897769033,"44":19938334.36837827,"45":-39.865770154075335,"46":-44.69168882207194,"47":-56.388321313070406,"48":19938334.349795345,"49":-89.20627523818519,"50":19938334.382852007,"51":-63.10413263835222,"52":-59.78038568288386,"53":-62.97680309333351,"54":-71.92220418086178,"55":-84.669728518508,"56":-99.57093804895351,"57":-857.0778867058893,"58":-89.17453097295657,"59":-82.11382792614884,"60":-79.85766712839414,"61":-82.29971205025375,"62":-89.00806013635899,"63":-99.68554303834928,"64":-112.63702902798212,"65":-71.89529176377658,"66":19938334.382876746,"67":-59.85776723070762,"68":19938334.420623347,"69":-71.97882873035053,"70":-84.63582344715492,"71":-99.53583827320323,"72":-56.383617567402155,"73":19938334.324870028,"74":-39.85588255296734,"75":19938334.43266179,"76":-56.30654024526674,"77":-71.77729769323342,"78":-89.12810518864391,"79":-44.67138113277331,"80":19938334.38882657,"81":-19.970383977559226,"82":19938334.26611787,"83":-44.60706607074104,"84":-63.03704980471881,"85":-82.15150415301528,"86":-39.81784315804641,"87":-19.986066949255683,"88":-19938334.45087606,"89":19938334.34298916,"90":19938334.401236422,"91":-59.858979159913254,"92":-79.7636069525219,"93":-44.6498099665368,"94":19938334.247986116,"95":19938334.257944874,"96":-28.170650511609818,"97":-44.63059013214141,"98":-63.14057311889494,"99":-82.04329477960933,"100":-56.31346549857995,"101":19938334.642675024,"102":-39.790935910243896,"103":-44.678769702225395,"104":-56.393979684466295,"105":19938334.41696411,"106":-89.10854577404719,"107":19938334.376886174,"108":-62.9416393730827,"109":-59.93049140857226,"110":-62.95778079766263,"111":-72.0140833277959,"112":-84.64973070014209,"113":-99.67841376735443,"114":1.9647911343754334,"115":-1.3631643715703814,"116":-402.74030327022246}},{"sx":1,"sy":1,"depth":117,"w":{"0":-0.19967587887863947,"1":-0.06324758478820557,"2":0.1795462389756974,"3":0.16849395746520013,"4":0.1820537036037385,"5":-0.003146144156569934,"6":0.01634158171616448,"7":-0.04795652687403436,"8":0.03792469224884757,"9":-0.04220281324050215,"10":0.004183078853012683,"11":0.09769819999333541,"12":0.07343027535633204,"13":0.06329933243842957,"14":-0.16062613464014255,"15":-0.05684925680246816,"16":0.10838437420997801,"17":-0.08209878494463366,"18":0.19068877765491032,"19":0.13313719467629698,"20":0.07311452908171352,"21":-0.06168674989503711,"22":-0.10714643699582484,"23":-0.046582097116970526,"24":-0.06859915363531903,"25":-0.06756864294769079,"26":-0.03715762075573817,"27":0.11338111191153474,"28":-0.04599646961594794,"29":-0.07165973667868543,"30":-0.10030479674370843,"31":-0.07456688023260843,"32":0.11604502234649106,"33":0.07098128415301208,"34":-0.04261586661258068,"35":0.1101857245309696,"36":0.06420677168929817,"37":0.04135651192960521,"38":0.06998790324858482,"39":0.060791566995463564,"40":-0.05227706944191395,"41":0.1558660766758908,"42":-0.20608546953444798,"43":0.03200694548355242,"44":-0.0961577313536809,"45":0.0015803853301437154,"46":0.0019127339602255618,"47":-0.027228357242160616,"48":-0.12275848135551314,"49":-0.03426597322171105,"50":-0.1945148004927728,"51":0.002152546559953172,"52":-0.014136582176495124,"53":0.05641348956492131,"54":-0.0009282270699228302,"55":0.07270526772008284,"56":0.07232703185503818,"57":-0.02397372190055721,"58":-0.09030080678789723,"59":-0.08821850160831114,"60":0.09822865563342675,"61":-0.00902825166131903,"62":-0.17636325721273183,"63":0.17664767405955328,"64":0.030330171051760006,"65":-0.02921120056438367,"66":0.042510889004344764,"67":-0.046754920147969406,"68":0.02638874876946027,"69":0.03327908540544849,"70":-0.1547833446689703,"71":0.14869175856382558,"72":0.004076373769398414,"73":-0.004576826670113093,"74":-0.07266338424106956,"75":0.1261637488655321,"76":0.04061499778878095,"77":0.009869913944080894,"78":0.02249349060172772,"79":-0.047235900921022644,"80":0.0766859572630225,"81":0.08020889648925235,"82":-0.03173302248822365,"83":-0.13493052534464658,"84":-0.23085883148402173,"85":0.08802993613680386,"86":-0.08372998891972128,"87":-0.007848178772363056,"88":0.014025614664170256,"89":-0.07795760649531888,"90":0.08768712154071584,"91":-0.05271473123780103,"92":-0.1385529161541043,"93":0.14130749789376632,"94":-0.056911993148260544,"95":-0.023297750671912466,"96":-0.11317717655063386,"97":0.07482767052174442,"98":-0.0052238225546155075,"99":-0.07675793000618313,"100":-0.0723738969105267,"101":-0.0596858593744858,"102":0.1286192863949097,"103":-0.10966460641180355,"104":0.02852705353074108,"105":0.07559555955640783,"106":0.004584951269787265,"107":0.047823336014943485,"108":0.14344343852689934,"109":0.16199036100304898,"110":0.005005171925886753,"111":0.09032454249302105,"112":-0.014305265500894612,"113":0.10536464074318903,"114":-0.04485053624211612,"115":-0.11302673090848352,"116":-0.07124305488652984}},{"sx":1,"sy":1,"depth":117,"w":{"0":-132.0992694739219,"1":-13.394417360224388,"2":-12.264470918355368,"3":-11.926323800746319,"4":-12.34111714042954,"5":-13.311595707704425,"6":-14.868232977564015,"7":-16.737281067088244,"8":-10.752778949069572,"9":2980601.295654593,"10":-8.97742475137914,"11":2980601.446746555,"12":-10.742302310650206,"13":-12.480207400562445,"14":-14.876036120292309,"15":-8.425836598506924,"16":2980601.2994341943,"17":-6.045975280394706,"18":2980601.545730031,"19":-8.417253891883451,"20":-10.803876429943868,"21":-13.398608204373623,"22":-6.615258319814718,"23":2980601.5589793706,"24":-2.7922745413493173,"25":2980601.4890082004,"26":-6.465119902341028,"27":-9.361359980480026,"28":-12.393634685050785,"29":-5.951516157702992,"30":-2.9380682041962274,"31":-2980601.567826795,"32":2980601.3945448194,"33":2980601.467352974,"34":-8.886153236319787,"35":-11.876677057781023,"36":-6.782569475637677,"37":2980601.515448661,"38":2980601.539505614,"39":-4.09564102673519,"40":-6.805722107137091,"41":-9.345700016435407,"42":-12.130946559494998,"43":-8.20619392388014,"44":2980601.520335056,"45":-6.015022754379202,"46":-6.62805458391596,"47":-8.49873154710296,"48":2980601.5596748665,"49":-13.219148932605792,"50":2980601.4569690963,"51":-9.397621058083498,"52":-9.020886377932696,"53":-9.400427931769965,"54":-10.799087052046385,"55":-12.67976005630755,"56":-14.74425709789476,"57":-124.63486541212343,"58":-13.319751492474953,"59":-12.282042896949296,"60":-11.942269813768386,"61":-12.39137049821167,"62":-13.38152650815392,"63":-14.97362637375745,"64":-16.841011534236145,"65":-10.817103963995361,"66":2980601.334784845,"67":-8.833112771134346,"68":2980601.24616146,"69":-10.68975176263282,"70":-12.744642538877613,"71":-14.833746742849485,"72":-8.416376964169018,"73":2980601.390223059,"74":-6.076482631419231,"75":2980601.663565157,"76":-8.46629943207434,"77":-10.675684916420145,"78":-13.432042697792726,"79":-6.722502997783416,"80":2980601.48411599,"81":-3.0270577637808844,"82":2980601.472305362,"83":-6.591824885741996,"84":-9.444095462662927,"85":-12.086595100449955,"86":-5.825043674403925,"87":-3.0752452649951083,"88":-2980601.363555354,"89":2980601.337517747,"90":2980601.381726791,"91":-8.92057360453874,"92":-12.104737785835328,"93":-6.68654544350574,"94":2980601.499580668,"95":2980601.435442907,"96":-4.162346155989889,"97":-6.6200602377515105,"98":-9.396512010033641,"99":-12.31120566358947,"100":-8.467140777644316,"101":2980601.5722012687,"102":-6.012928105402411,"103":-6.595944958581271,"104":-8.452768647685446,"105":2980601.431569344,"106":-13.466843901876402,"107":2980601.368722598,"108":-9.472907382550682,"109":-8.879030243166525,"110":-9.442284169312723,"111":-10.734559668938982,"112":-12.593382678845135,"113":-14.860848019586133,"114":-3.69367453126438,"115":-4.843756163997375,"116":-90.93607256082919}},{"sx":1,"sy":1,"depth":117,"w":{"0":-6.8941656685416395e+50,"1":-7.281545282575277e+49,"2":-6.713253045049461e+49,"3":-6.512812093232542e+49,"4":-6.713253045049461e+49,"5":-7.281545282575277e+49,"6":-8.141015116540676e+49,"7":-9.210507191436936e+49,"8":-5.870569487402927e+49,"9":1.6282030233081284e+55,"10":-4.884609069924267e+49,"11":1.6282030233081284e+55,"12":-5.870569487402927e+49,"13":-6.907880393577663e+49,"14":-8.141015116540676e+49,"15":-4.605253595718468e+49,"16":1.6282030233081284e+55,"17":-3.256406046616271e+49,"18":1.6282030233081284e+55,"19":-4.605253595718468e+49,"20":-5.870569487402927e+49,"21":-7.281545282575277e+49,"22":-3.6407726412876383e+49,"23":1.6282030233081284e+55,"24":-1.6282030233081354e+49,"25":1.6282030233081284e+55,"26":-3.6407726412876383e+49,"27":-5.148830046825898e+49,"28":-6.713253045049461e+49,"29":-3.256406046616271e+49,"30":-1.6282030233081354e+49,"31":-1.6282030233081284e+55,"32":1.6282030233081284e+55,"33":1.6282030233081284e+55,"34":-4.884609069924267e+49,"35":-6.512812093232542e+49,"36":-3.6407726412876383e+49,"37":1.6282030233081284e+55,"38":1.6282030233081284e+55,"39":-2.302626797859234e+49,"40":-3.6407726412876383e+49,"41":-5.148830046825898e+49,"42":-6.713253045049461e+49,"43":-4.605253595718468e+49,"44":1.6282030233081284e+55,"45":-3.256406046616271e+49,"46":-3.6407726412876383e+49,"47":-4.605253595718468e+49,"48":1.6282030233081284e+55,"49":-7.281545282575277e+49,"50":1.6282030233081284e+55,"51":-5.148830046825898e+49,"52":-4.884609069924267e+49,"53":-5.148830046825898e+49,"54":-5.870569487402927e+49,"55":-6.907880393577663e+49,"56":-8.141015116540676e+49,"57":-6.83758364268872e+50,"58":-7.281545282575277e+49,"59":-6.713253045049461e+49,"60":-6.512812093232542e+49,"61":-6.713253045049461e+49,"62":-7.281545282575277e+49,"63":-8.141015116540676e+49,"64":-9.210507191436936e+49,"65":-5.870569487402927e+49,"66":1.6282030233081284e+55,"67":-4.884609069924267e+49,"68":1.6282030233081284e+55,"69":-5.870569487402927e+49,"70":-6.907880393577663e+49,"71":-8.141015116540676e+49,"72":-4.605253595718468e+49,"73":1.6282030233081284e+55,"74":-3.256406046616271e+49,"75":1.6282030233081284e+55,"76":-4.605253595718468e+49,"77":-5.870569487402927e+49,"78":-7.281545282575277e+49,"79":-3.6407726412876383e+49,"80":1.6282030233081284e+55,"81":-1.6282030233081354e+49,"82":1.6282030233081284e+55,"83":-3.6407726412876383e+49,"84":-5.148830046825898e+49,"85":-6.713253045049461e+49,"86":-3.256406046616271e+49,"87":-1.6282030233081354e+49,"88":-1.6282030233081284e+55,"89":1.6282030233081284e+55,"90":1.6282030233081284e+55,"91":-4.884609069924267e+49,"92":-6.512812093232542e+49,"93":-3.6407726412876383e+49,"94":1.6282030233081284e+55,"95":1.6282030233081284e+55,"96":-2.302626797859234e+49,"97":-3.6407726412876383e+49,"98":-5.148830046825898e+49,"99":-6.713253045049461e+49,"100":-4.605253595718468e+49,"101":1.6282030233081284e+55,"102":-3.256406046616271e+49,"103":-3.6407726412876383e+49,"104":-4.605253595718468e+49,"105":1.6282030233081284e+55,"106":-7.281545282575277e+49,"107":1.6282030233081284e+55,"108":-5.148830046825898e+49,"109":-4.884609069924267e+49,"110":-5.148830046825898e+49,"111":-5.870569487402927e+49,"112":-6.907880393577663e+49,"113":-8.141015116540676e+49,"114":-4.4295150671050935e+50,"115":-3.2223770221559596e+49,"116":-2.9369639520815194e+49}},{"sx":1,"sy":1,"depth":117,"w":{"0":-0.13661839615265867,"1":0.11406660994137047,"2":0.00544909765584359,"3":0.12403945142373184,"4":-0.053989901362709196,"5":-0.047659372779568276,"6":0.08465659859471034,"7":-0.10263137624441503,"8":-0.04006230771186706,"9":0.09539689885980288,"10":0.0046401333560023295,"11":-0.11149484383699142,"12":0.0904068503497761,"13":0.05082528457295752,"14":0.052891648691656516,"15":-0.03330252735834855,"16":0.15411002695051074,"17":0.027170102955960007,"18":-0.059173868426003966,"19":-0.12605947649653745,"20":0.06053234253681995,"21":0.017170979154560454,"22":-0.1187811423649137,"23":-0.10621538733916575,"24":0.006994833661316903,"25":-0.0037663185227996875,"26":-0.08450834842568976,"27":0.08891823334237506,"28":-0.0868125118753578,"29":0.052174781636018186,"30":-0.18897444092643012,"31":-0.10875451914043259,"32":0.07919910027803673,"33":-0.020026154429810077,"34":0.05284960000341388,"35":0.05597707324996651,"36":-0.11017160621532536,"37":-0.07647845022676043,"38":-0.03088520573813082,"39":0.08782238097799729,"40":0.21773426107563634,"41":-0.06564775929027385,"42":0.07124684758790652,"43":-0.03172361498476557,"44":0.022215023293583262,"45":-0.02550434566922788,"46":-0.0902895542893118,"47":0.03506587894553426,"48":0.017696238245071237,"49":0.015469501353978172,"50":0.09182323879874173,"51":0.07766058173088453,"52":0.07543485790177006,"53":0.07020305403933527,"54":-0.01567114485166186,"55":0.1339576805758145,"56":-0.01934478377000856,"57":0.17355108418646636,"58":0.06486205116702302,"59":-0.006863421967963042,"60":0.002363846487375475,"61":0.10049817667303089,"62":-0.07239010647000066,"63":0.09593025048609413,"64":-0.00871302735903154,"65":0.05784559150722709,"66":0.07071992566855521,"67":0.02605642822195177,"68":0.17122260194357758,"69":0.028724964190811105,"70":0.04096286865482567,"71":0.042574412678991494,"72":0.15921015187235743,"73":0.05251486543805904,"74":-0.14794889960672186,"75":-0.05843026597742953,"76":-0.20505385284512695,"77":0.1539638655437964,"78":0.039224800704733095,"79":0.02314443908218486,"80":0.08245618351416349,"81":0.041384458611079276,"82":-0.0826943860597644,"83":0.009255409601544643,"84":0.11306566933462384,"85":-0.026109075210918164,"86":0.010179723581556232,"87":0.08867613683718155,"88":0.07068646400025821,"89":-0.014634028119339563,"90":0.13076223913694052,"91":0.10648006673669573,"92":0.05153830277958925,"93":0.05136521044290773,"94":-0.005955350149738765,"95":0.040278618773001915,"96":-0.07247371741017895,"97":0.08142594053508505,"98":0.01782667142986577,"99":0.16115242058867071,"100":-0.03662247339731214,"101":-0.04715706737516202,"102":0.22209096371065762,"103":0.11029872650229468,"104":0.13433178174432575,"105":-0.07387857449753392,"106":0.014765566640072064,"107":0.03136240010988054,"108":-0.029821314910876306,"109":0.13359170462606357,"110":-0.014754073806658838,"111":0.14402270359118205,"112":-0.05497036084539864,"113":0.1619146847372513,"114":0.023695450526377535,"115":0.0897648100842485,"116":-0.16171274931370264}}],"biases":{"sx":1,"sy":1,"depth":10,"w":{"0":0.1,"1":-14.472097267560082,"2":-1.5058098779518387,"3":0.1,"4":0.1,"5":-19.87304796836273,"6":0.1,"7":-2.8857908282479783,"8":-1.6310375435954688e+49,"9":0.1}}},{"out_depth":10,"out_sx":1,"out_sy":1,"layer_type":"relu"},{"out_depth":10,"out_sx":1,"out_sy":1,"layer_type":"fc","num_inputs":10,"l1_decay_mul":0,"l2_decay_mul":1,"filters":[{"sx":1,"sy":1,"depth":10,"w":{"0":-0.43642789041540625,"1":0.23977117873969456,"2":0.1975193508451164,"3":-0.510790665894909,"4":-0.6682221914067475,"5":-0.3018026745580774,"6":-0.13489252653289116,"7":-0.5387956573146937,"8":-3.025406476729395e+50,"9":-0.10130904356415354}},{"sx":1,"sy":1,"depth":10,"w":{"0":0.3137026629558359,"1":636009.4693139582,"2":2419447.184740162,"3":0.6057167698754932,"4":0.009979500090213339,"5":5992839.291717288,"6":-0.2859942045330136,"7":5020914.720678897,"8":-1.2699690581758325e+57,"9":0.08652057247665675}},{"sx":1,"sy":1,"depth":10,"w":{"0":null,"1":null,"2":null,"3":null,"4":null,"5":null,"6":null,"7":null,"8":null,"9":null}},{"sx":1,"sy":1,"depth":10,"w":{"0":-0.061722110566582396,"1":-1260507.9881158008,"2":-4794884.16360286,"3":-0.646679534697234,"4":-0.02492002185069388,"5":-11876749.602579203,"6":0.3697205733701217,"7":-9950487.213843245,"8":-4635817.318606024,"9":0.05252780905431261}},{"sx":1,"sy":1,"depth":10,"w":{"0":0.320676582680699,"1":0.17232843225276456,"2":-0.14298142604359954,"3":-0.13092694146858955,"4":0.1548452357705487,"5":-0.16337248538802712,"6":0.044853529493167905,"7":-0.5963770993397473,"8":-4.078395391979595e+50,"9":0.21571680117730135}},{"sx":1,"sy":1,"depth":10,"w":{"0":0.18651690984580638,"1":-1151694.8646197335,"2":-4380907.346863772,"3":-0.18308548757513451,"4":0.0010558532209845512,"5":-10851372.674140783,"6":0.3713549597956317,"7":-9091390.49809163,"8":-4235580.082527992,"9":0.2487584806756712}},{"sx":1,"sy":1,"depth":10,"w":{"0":0.3837064427741391,"1":0.19671660526997656,"2":0.3554307768199751,"3":0.25810059552087217,"4":-0.35779642184012406,"5":-0.00981721029341724,"6":0.025841401421214157,"7":-0.3847726712225539,"8":-0.5014256850876668,"9":0.10357713251623284}},{"sx":1,"sy":1,"depth":10,"w":{"0":0.004294260401681537,"1":-324092.56507795304,"2":-1232639.468800145,"3":-0.2695664152395722,"4":-0.35790967237380694,"5":-3053301.7268397184,"6":0.03146651557686744,"7":-2558012.9776390735,"8":-1191771.3240978688,"9":0.214312649645443}},{"sx":1,"sy":1,"depth":10,"w":{"0":0.21134790605423315,"1":-0.4259503417291779,"2":-0.7842323734427105,"3":-0.006743341052051739,"4":-0.45865302013738907,"5":-0.11071057014679703,"6":0.04788334510264702,"7":0.3693970645350517,"8":-0.06707409603068779,"9":0.543442861694736}},{"sx":1,"sy":1,"depth":10,"w":{"0":-0.4854298155085512,"1":-1008157.8423466131,"2":-3834856.469462114,"3":0.06034278849250451,"4":-0.5690233603288055,"5":-9498850.989865558,"6":0.240397515346252,"7":-7958210.012940061,"8":-3707650.196082852,"9":0.3071716793330103}}],"biases":{"sx":1,"sy":1,"depth":10,"w":{"0":-1.6581935735364675e+36,"1":-6.960567272711832e+42,"2":null,"3":-23.836136949272817,"4":-2.2353257591463138e+36,"5":-21.769591127599135,"6":-6.280266604187331e+120,"7":-6.053473337790255,"8":-2.7291518794700203e+121,"9":-19.043727647763113}}},{"out_depth":10,"out_sx":1,"out_sy":1,"layer_type":"relu"},{"out_depth":10,"out_sx":1,"out_sy":1,"layer_type":"fc","num_inputs":10,"l1_decay_mul":0,"l2_decay_mul":1,"filters":[{"sx":1,"sy":1,"depth":10,"w":{"0":null,"1":null,"2":null,"3":null,"4":null,"5":null,"6":null,"7":null,"8":null,"9":null}},{"sx":1,"sy":1,"depth":10,"w":{"0":null,"1":null,"2":null,"3":null,"4":null,"5":null,"6":null,"7":null,"8":null,"9":null}},{"sx":1,"sy":1,"depth":10,"w":{"0":null,"1":null,"2":null,"3":null,"4":null,"5":null,"6":null,"7":null,"8":null,"9":null}},{"sx":1,"sy":1,"depth":10,"w":{"0":null,"1":null,"2":null,"3":null,"4":null,"5":null,"6":null,"7":null,"8":null,"9":null}},{"sx":1,"sy":1,"depth":10,"w":{"0":null,"1":null,"2":null,"3":null,"4":null,"5":null,"6":null,"7":null,"8":null,"9":null}},{"sx":1,"sy":1,"depth":10,"w":{"0":null,"1":null,"2":null,"3":null,"4":null,"5":null,"6":null,"7":null,"8":null,"9":null}},{"sx":1,"sy":1,"depth":10,"w":{"0":null,"1":null,"2":null,"3":null,"4":null,"5":null,"6":null,"7":null,"8":null,"9":null}},{"sx":1,"sy":1,"depth":10,"w":{"0":null,"1":null,"2":null,"3":null,"4":null,"5":null,"6":null,"7":null,"8":null,"9":null}},{"sx":1,"sy":1,"depth":10,"w":{"0":null,"1":null,"2":null,"3":null,"4":null,"5":null,"6":null,"7":null,"8":null,"9":null}},{"sx":1,"sy":1,"depth":10,"w":{"0":null,"1":null,"2":null,"3":null,"4":null,"5":null,"6":null,"7":null,"8":null,"9":null}}],"biases":{"sx":1,"sy":1,"depth":10,"w":{"0":null,"1":null,"2":null,"3":null,"4":null,"5":null,"6":null,"7":null,"8":null,"9":null}}},{"out_depth":10,"out_sx":1,"out_sy":1,"layer_type":"relu"},{"out_depth":5,"out_sx":1,"out_sy":1,"layer_type":"fc","num_inputs":10,"l1_decay_mul":0,"l2_decay_mul":1,"filters":[{"sx":1,"sy":1,"depth":10,"w":{"0":null,"1":null,"2":null,"3":null,"4":null,"5":null,"6":null,"7":null,"8":null,"9":null}},{"sx":1,"sy":1,"depth":10,"w":{"0":null,"1":null,"2":null,"3":null,"4":null,"5":null,"6":null,"7":null,"8":null,"9":null}},{"sx":1,"sy":1,"depth":10,"w":{"0":null,"1":null,"2":null,"3":null,"4":null,"5":null,"6":null,"7":null,"8":null,"9":null}},{"sx":1,"sy":1,"depth":10,"w":{"0":null,"1":null,"2":null,"3":null,"4":null,"5":null,"6":null,"7":null,"8":null,"9":null}},{"sx":1,"sy":1,"depth":10,"w":{"0":null,"1":null,"2":null,"3":null,"4":null,"5":null,"6":null,"7":null,"8":null,"9":null}}],"biases":{"sx":1,"sy":1,"depth":5,"w":{"0":null,"1":null,"2":null,"3":null,"4":null}}},{"out_depth":5,"out_sx":1,"out_sy":1,"layer_type":"regression","num_inputs":5}]}